{"NumberInput":2,"NumberNeurons":10,"NumberOutput":1,"NumberOfLayers":3,"WeightsHidden":[{"Values":[0.37699961850286584,0.3516793582227573,0.3804983373299032,0.34626567893323046,0.42740466180854936,0.3916361360600691,0.35351248261019935,0.3675942823960641,0.33374194526580386,0.34585038454351624,3.1631568531881484,2.898659396380202,2.5235931861549057,3.4519673999811076,1.9832992899557156,2.317174984272696,2.7370114120722,2.9705635892066438,2.8699089947076337,3.582183981920871],"Storage":{"Data":[0.37699961850286584,0.3516793582227573,0.3804983373299032,0.34626567893323046,0.42740466180854936,0.3916361360600691,0.35351248261019935,0.3675942823960641,0.33374194526580386,0.34585038454351624,3.1631568531881484,2.898659396380202,2.5235931861549057,3.4519673999811076,1.9832992899557156,2.317174984272696,2.7370114120722,2.9705635892066438,2.8699089947076337,3.582183981920871],"RowCount":10,"ColumnCount":2},"ColumnCount":2,"RowCount":10},{"Values":[0.41308793917918346,0.3801099422564833,0.41452789435216697,0.3746722865699912,0.3788339940340454,0.3591659889056966,0.3753725402945033,0.35770846398785455,0.3285391596021858,0.4046890669643272,0.3373626941672271,0.25985858145661567,0.36423255502867047,0.3336263449196528,0.32824156747128874,0.3082931453416555,0.3264776203041118,0.3202263531524007,0.3330186584227833,0.310871212551405,0.24392488554095518,0.27338349217443675,0.22740095788111586,0.2863101207866474,0.2323927560603648,0.28409666542753254,0.22933111594207575,0.24198446171371282,0.2272711111949906,0.30836889727281186,0.47966119172918426,0.34602370489130657,0.4377949778192904,0.41139051836889506,0.43017481140650804,0.42155029515729187,0.47239366515916165,0.422175183499974,0.4359506064363063,0.4783098238730435,0.18995972202727282,0.15362891688252367,0.1343464352180755,0.16845549171951127,0.20226214450518729,0.14544322785797123,0.14225081130962375,0.14961527589385465,0.1728764355314494,0.14628490234186423,0.2283775805198482,0.17440076873261806,0.25056346204528257,0.2461473430653334,0.18541536151052235,0.20550100822758496,0.25848422736274057,0.18393135864774884,0.20340635202493923,0.2117060749411681,0.25676165746545376,0.321034938130611,0.2857275650865211,0.2570520280436557,0.29299136515807445,0.2994762655094027,0.3164014477422679,0.2786542962633242,0.3190907911130499,0.3084434032022959,0.33933974103398523,0.33498695717657717,0.3697253179961139,0.3464790247772879,0.30111920264596065,0.2994593544693612,0.3615341859295936,0.3419194311734891,0.37446572892292196,0.3259816732949401,0.3050816627089454,0.33629768039264096,0.2666728850928378,0.35140932364535155,0.2787423088747312,0.35849810864076137,0.31943200867603827,0.33570347298732656,0.2801656368326413,0.3502360125645054,0.4640555771380387,0.4084100625653962,0.4534245279402819,0.43894382274619465,0.43177273683292455,0.48939321250169127,0.5295470045086109,0.4781676408808927,0.4654275934472444,0.4693365730792125],"Storage":{"Data":[0.41308793917918346,0.3801099422564833,0.41452789435216697,0.3746722865699912,0.3788339940340454,0.3591659889056966,0.3753725402945033,0.35770846398785455,0.3285391596021858,0.4046890669643272,0.3373626941672271,0.25985858145661567,0.36423255502867047,0.3336263449196528,0.32824156747128874,0.3082931453416555,0.3264776203041118,0.3202263531524007,0.3330186584227833,0.310871212551405,0.24392488554095518,0.27338349217443675,0.22740095788111586,0.2863101207866474,0.2323927560603648,0.28409666542753254,0.22933111594207575,0.24198446171371282,0.2272711111949906,0.30836889727281186,0.47966119172918426,0.34602370489130657,0.4377949778192904,0.41139051836889506,0.43017481140650804,0.42155029515729187,0.47239366515916165,0.422175183499974,0.4359506064363063,0.4783098238730435,0.18995972202727282,0.15362891688252367,0.1343464352180755,0.16845549171951127,0.20226214450518729,0.14544322785797123,0.14225081130962375,0.14961527589385465,0.1728764355314494,0.14628490234186423,0.2283775805198482,0.17440076873261806,0.25056346204528257,0.2461473430653334,0.18541536151052235,0.20550100822758496,0.25848422736274057,0.18393135864774884,0.20340635202493923,0.2117060749411681,0.25676165746545376,0.321034938130611,0.2857275650865211,0.2570520280436557,0.29299136515807445,0.2994762655094027,0.3164014477422679,0.2786542962633242,0.3190907911130499,0.3084434032022959,0.33933974103398523,0.33498695717657717,0.3697253179961139,0.3464790247772879,0.30111920264596065,0.2994593544693612,0.3615341859295936,0.3419194311734891,0.37446572892292196,0.3259816732949401,0.3050816627089454,0.33629768039264096,0.2666728850928378,0.35140932364535155,0.2787423088747312,0.35849810864076137,0.31943200867603827,0.33570347298732656,0.2801656368326413,0.3502360125645054,0.4640555771380387,0.4084100625653962,0.4534245279402819,0.43894382274619465,0.43177273683292455,0.48939321250169127,0.5295470045086109,0.4781676408808927,0.4654275934472444,0.4693365730792125],"RowCount":10,"ColumnCount":10},"ColumnCount":10,"RowCount":10},{"Values":[-0.2408829167194212,-0.2769354893119718,-0.2400079300175318,-0.20189477597162925,-0.19702962743049432,-0.27628714633615,-0.165280796549923,-0.221251588555311,-0.1968103092284824,-0.19079685036323268,-0.16945826878591772,-0.18075584026043967,-0.21158222556292547,-0.1669393963714072,-0.15569382249168404,-0.171293164215596,-0.2106921090392887,-0.20113970749947246,-0.15450141808810397,-0.18157578676953776,-0.26517556996717523,-0.1998253526157014,-0.15734807086012956,-0.24033857997110644,-0.19384708935535447,-0.22900304552504935,-0.217649879554113,-0.23585312550138463,-0.22809348064966628,-0.19882371274090288,-0.21362583802295873,-0.22200395030688036,-0.19558082928682835,-0.18330181557514283,-0.23873297851008676,-0.23831325503500814,-0.2159668682259676,-0.19578564394626458,-0.1978691798311618,-0.2190017810242431,-0.19879337609566647,-0.2151166416122637,-0.22907361640820273,-0.18373766419289966,-0.2039843345942983,-0.2016182343257298,-0.1916821802166506,-0.18900545020287524,-0.1721030244732201,-0.205718615850772,-0.2344014571802794,-0.1880560223014177,-0.15098191436256245,-0.22313922871352365,-0.2603482296865757,-0.21092325738312925,-0.23881532225945815,-0.17147218971046604,-0.2508971582611407,-0.24912637700539972,-0.21144064398199502,-0.20755361671314185,-0.25642192195633884,-0.284503998683741,-0.2614676354759451,-0.26109427647980593,-0.24499918040061405,-0.23599918434877742,-0.2103776667603793,-0.2390730622539028,-0.21943454303185356,-0.19981166455370625,-0.1797400468370787,-0.22840781980463168,-0.16568041471340614,-0.22264665361028382,-0.19416831812593002,-0.24748933645022117,-0.18228771593693358,-0.17540508451486406,-0.17264638875117636,-0.18798649405159557,-0.2138601414094418,-0.19038047013840612,-0.2271364589434892,-0.18878863511431487,-0.18513288416141094,-0.23717277944246892,-0.15869481409048608,-0.20197868372228264,-0.2469965441731669,-0.21559277082909806,-0.2038245924848696,-0.22810216601593863,-0.19789842041544672,-0.1945243642832087,-0.2061809291145569,-0.24661429020298462,-0.19433549110530796,-0.25635841633991846],"Storage":{"Data":[-0.2408829167194212,-0.2769354893119718,-0.2400079300175318,-0.20189477597162925,-0.19702962743049432,-0.27628714633615,-0.165280796549923,-0.221251588555311,-0.1968103092284824,-0.19079685036323268,-0.16945826878591772,-0.18075584026043967,-0.21158222556292547,-0.1669393963714072,-0.15569382249168404,-0.171293164215596,-0.2106921090392887,-0.20113970749947246,-0.15450141808810397,-0.18157578676953776,-0.26517556996717523,-0.1998253526157014,-0.15734807086012956,-0.24033857997110644,-0.19384708935535447,-0.22900304552504935,-0.217649879554113,-0.23585312550138463,-0.22809348064966628,-0.19882371274090288,-0.21362583802295873,-0.22200395030688036,-0.19558082928682835,-0.18330181557514283,-0.23873297851008676,-0.23831325503500814,-0.2159668682259676,-0.19578564394626458,-0.1978691798311618,-0.2190017810242431,-0.19879337609566647,-0.2151166416122637,-0.22907361640820273,-0.18373766419289966,-0.2039843345942983,-0.2016182343257298,-0.1916821802166506,-0.18900545020287524,-0.1721030244732201,-0.205718615850772,-0.2344014571802794,-0.1880560223014177,-0.15098191436256245,-0.22313922871352365,-0.2603482296865757,-0.21092325738312925,-0.23881532225945815,-0.17147218971046604,-0.2508971582611407,-0.24912637700539972,-0.21144064398199502,-0.20755361671314185,-0.25642192195633884,-0.284503998683741,-0.2614676354759451,-0.26109427647980593,-0.24499918040061405,-0.23599918434877742,-0.2103776667603793,-0.2390730622539028,-0.21943454303185356,-0.19981166455370625,-0.1797400468370787,-0.22840781980463168,-0.16568041471340614,-0.22264665361028382,-0.19416831812593002,-0.24748933645022117,-0.18228771593693358,-0.17540508451486406,-0.17264638875117636,-0.18798649405159557,-0.2138601414094418,-0.19038047013840612,-0.2271364589434892,-0.18878863511431487,-0.18513288416141094,-0.23717277944246892,-0.15869481409048608,-0.20197868372228264,-0.2469965441731669,-0.21559277082909806,-0.2038245924848696,-0.22810216601593863,-0.19789842041544672,-0.1945243642832087,-0.2061809291145569,-0.24661429020298462,-0.19433549110530796,-0.25635841633991846],"RowCount":10,"ColumnCount":10},"ColumnCount":10,"RowCount":10},{"Values":[-0.24916670891015155,-0.2408684602453898,-0.1980306498875197,-0.2409446639262324,-0.23721106102687853,-0.25712855706053456,-0.21721548608288224,-0.24735043094075543,-0.1938503783222825,-0.23675664022789797],"Storage":{"Data":[-0.24916670891015155,-0.2408684602453898,-0.1980306498875197,-0.2409446639262324,-0.23721106102687853,-0.25712855706053456,-0.21721548608288224,-0.24735043094075543,-0.1938503783222825,-0.23675664022789797],"RowCount":1,"ColumnCount":10},"ColumnCount":10,"RowCount":1}],"BiasHidden":[{"Values":[-1.2079063710990061,-1.0270797423143516,-0.8023831329285361,-1.3617500448987043,-0.4978836317886108,-0.6770215189920156,-0.9240734995785896,-1.0822150574563294,-0.9932470096762764,-1.4382145526563712],"Storage":{"Data":[-1.2079063710990061,-1.0270797423143516,-0.8023831329285361,-1.3617500448987043,-0.4978836317886108,-0.6770215189920156,-0.9240734995785896,-1.0822150574563294,-0.9932470096762764,-1.4382145526563712],"RowCount":10,"ColumnCount":1},"ColumnCount":1,"RowCount":10},{"Values":[-0.4777261358446543,-0.34325745063798774,-0.43931330532086066,-0.4501438535110194,-0.3224769314514116,-0.3973770980111774,-0.5106354496925959,-0.3874571023682741,-0.449833012378995,-0.5459875689901613],"Storage":{"Data":[-0.4777261358446543,-0.34325745063798774,-0.43931330532086066,-0.4501438535110194,-0.3224769314514116,-0.3973770980111774,-0.5106354496925959,-0.3874571023682741,-0.449833012378995,-0.5459875689901613],"RowCount":10,"ColumnCount":1},"ColumnCount":1,"RowCount":10},{"Values":[0.11798650870456583,0.01097405730052574,0.07009426800419676,0.08370201540994873,0.03698405689678309,0.12724320957212013,0.06223455940627347,0.08593406138704922,-0.013104646170246132,0.06851228873483153],"Storage":{"Data":[0.11798650870456583,0.01097405730052574,0.07009426800419676,0.08370201540994873,0.03698405689678309,0.12724320957212013,0.06223455940627347,0.08593406138704922,-0.013104646170246132,0.06851228873483153],"RowCount":10,"ColumnCount":1},"ColumnCount":1,"RowCount":10},{"Values":[0.1988239140696809],"Storage":{"Data":[0.1988239140696809],"RowCount":1,"ColumnCount":1},"ColumnCount":1,"RowCount":1}],"ActivationsHiddenSigmoid":[{"Values":[0.2300717040842655,0.2636506485947973,0.309515974560292,0.20395602134906926,0.37803815193074497,0.33692639256427465,0.28412861825305696,0.2530870665203037,0.2702712097162814,0.19182198758947583],"Storage":{"Data":[0.2300717040842655,0.2636506485947973,0.309515974560292,0.20395602134906926,0.37803815193074497,0.33692639256427465,0.28412861825305696,0.2530870665203037,0.2702712097162814,0.19182198758947583],"RowCount":10,"ColumnCount":1},"ColumnCount":1,"RowCount":10},{"Values":[0.5887143689978223,0.6058652284494521,0.594061101682156,0.5946103962871038,0.6147775264227306,0.6026017642660328,0.5840226906792213,0.6003604754377817,0.5883469627331056,0.5753072711675002],"Storage":{"Data":[0.5887143689978223,0.6058652284494521,0.594061101682156,0.5946103962871038,0.6147775264227306,0.6026017642660328,0.5840226906792213,0.6003604754377817,0.5883469627331056,0.5753072711675002],"RowCount":10,"ColumnCount":1},"ColumnCount":1,"RowCount":10},{"Values":[0.236238530239989,0.22553972921835871,0.2420041602601107,0.23469055676289716,0.22927677071139274,0.23556902983129321,0.23696682296984356,0.2296891697519273,0.23681823489921572,0.2332587320676363],"Storage":{"Data":[0.236238530239989,0.22553972921835871,0.2420041602601107,0.23469055676289716,0.22927677071139274,0.23556902983129321,0.23696682296984356,0.2296891697519273,0.23681823489921572,0.2332587320676363],"RowCount":10,"ColumnCount":1},"ColumnCount":1,"RowCount":10},{"Values":[0.41502899504416985],"Storage":{"Data":[0.41502899504416985],"RowCount":1,"ColumnCount":1},"ColumnCount":1,"RowCount":1}]}